{"inputLayerWeights":[{"weightList":[-1.4302970170974732,0.719405472278595,1.4054265022277833,-0.627714991569519,2.1227128505706789]},{"weightList":[2.1309943199157717,1.5721970796585084,-1.405319333076477,3.570894956588745,1.569061040878296]},{"weightList":[-0.8424948453903198,0.4788950979709625,0.9151992201805115,-0.004168270155787468,1.744531273841858]},{"weightList":[-1.7082910537719727,-1.0814391374588013,0.06458775699138642,0.9468305110931397,2.6260693073272707]},{"weightList":[-3.0652482509613039,-3.8433115482330324,-3.8696248531341554,-8.994258880615235,-1.5501437187194825]},{"weightList":[2.8102338314056398,-3.632493257522583,2.1509199142456056,-7.159151554107666,2.370593786239624]},{"weightList":[0.3041338324546814,-0.0764043852686882,2.9237380027770998,0.5560258030891419,0.5226302742958069]},{"weightList":[-1.4103094339370728,-0.7555770874023438,-2.680116653442383,-4.593767166137695,-0.33769649267196658]},{"weightList":[-1.8481866121292115,-1.2021324634552003,1.7006759643554688,1.0446767807006837,1.2329479455947877]},{"weightList":[1.510210633277893,0.3686303496360779,0.06005335599184036,-0.15076345205307008,0.319224089384079]},{"weightList":[-1.4128308296203614,0.8137233853340149,-4.013867378234863,0.09098037332296372,0.6300379633903503]},{"weightList":[-0.24593961238861085,2.8832473754882814,1.3641629219055176,3.1453425884246828,1.1420354843139649]},{"weightList":[0.7163255214691162,0.07925695180892945,3.5218632221221926,0.44048839807510378,-0.14057940244674684]},{"weightList":[-2.506466865539551,2.1007113456726076,-4.161869525909424,6.077975273132324,0.14089855551719666]},{"weightList":[-2.3716964721679689,2.188286781311035,0.2281642109155655,-0.10796353220939636,2.8806710243225099]},{"weightList":[-1.4302970170974732,0.719405472278595,1.4054265022277833,-0.627714991569519,2.1227128505706789]},{"weightList":[2.1309943199157717,1.5721970796585084,-1.405319333076477,3.570894956588745,1.569061040878296]},{"weightList":[-0.8424948453903198,0.4788950979709625,0.9151992201805115,-0.004168270155787468,1.744531273841858]},{"weightList":[-1.7082910537719727,-1.0814391374588013,0.06458775699138642,0.9468305110931397,2.6260693073272707]},{"weightList":[-3.0652482509613039,-3.8433115482330324,-3.8696248531341554,-8.994258880615235,-1.5501437187194825]},{"weightList":[2.8102338314056398,-3.632493257522583,2.1509199142456056,-7.159151554107666,2.370593786239624]},{"weightList":[0.3041338324546814,-0.0764043852686882,2.9237380027770998,0.5560258030891419,0.5226302742958069]},{"weightList":[-1.4103094339370728,-0.7555770874023438,-2.680116653442383,-4.593767166137695,-0.33769649267196658]},{"weightList":[-1.8481866121292115,-1.2021324634552003,1.7006759643554688,1.0446767807006837,1.2329479455947877]},{"weightList":[1.510210633277893,0.3686303496360779,0.06005335599184036,-0.15076345205307008,0.319224089384079]},{"weightList":[-1.4128308296203614,0.8137233853340149,-4.013867378234863,0.09098037332296372,0.6300379633903503]},{"weightList":[-0.24593961238861085,2.8832473754882814,1.3641629219055176,3.1453425884246828,1.1420354843139649]},{"weightList":[0.7163255214691162,0.07925695180892945,3.5218632221221926,0.44048839807510378,-0.14057940244674684]},{"weightList":[-2.506466865539551,2.1007113456726076,-4.161869525909424,6.077975273132324,0.14089855551719666]},{"weightList":[-2.3716964721679689,2.188286781311035,0.2281642109155655,-0.10796353220939636,2.8806710243225099]},{"weightList":[-1.4302970170974732,0.719405472278595,1.4054265022277833,-0.627714991569519,2.1227128505706789]},{"weightList":[2.1309943199157717,1.5721970796585084,-1.405319333076477,3.570894956588745,1.569061040878296]},{"weightList":[-0.8424948453903198,0.4788950979709625,0.9151992201805115,-0.004168270155787468,1.744531273841858]},{"weightList":[-1.7082910537719727,-1.0814391374588013,0.06458775699138642,0.9468305110931397,2.6260693073272707]},{"weightList":[-3.0652482509613039,-3.8433115482330324,-3.8696248531341554,-8.994258880615235,-1.5501437187194825]},{"weightList":[2.8102338314056398,-3.632493257522583,2.1509199142456056,-7.159151554107666,2.370593786239624]},{"weightList":[0.3041338324546814,-0.0764043852686882,2.9237380027770998,0.5560258030891419,0.5226302742958069]},{"weightList":[-1.4103094339370728,-0.7555770874023438,-2.680116653442383,-4.593767166137695,-0.33769649267196658]},{"weightList":[-1.8481866121292115,-1.2021324634552003,1.7006759643554688,1.0446767807006837,1.2329479455947877]},{"weightList":[1.510210633277893,0.3686303496360779,0.06005335599184036,-0.15076345205307008,0.319224089384079]},{"weightList":[-1.4128308296203614,0.8137233853340149,-4.013867378234863,0.09098037332296372,0.6300379633903503]},{"weightList":[-0.24593961238861085,2.8832473754882814,1.3641629219055176,3.1453425884246828,1.1420354843139649]},{"weightList":[0.7163255214691162,0.07925695180892945,3.5218632221221926,0.44048839807510378,-0.14057940244674684]},{"weightList":[-2.506466865539551,2.1007113456726076,-4.161869525909424,6.077975273132324,0.14089855551719666]},{"weightList":[-2.3716964721679689,2.188286781311035,0.2281642109155655,-0.10796353220939636,2.8806710243225099]},{"weightList":[-1.4302970170974732,0.719405472278595,1.4054265022277833,-0.627714991569519,2.1227128505706789]},{"weightList":[2.1309943199157717,1.5721970796585084,-1.405319333076477,3.570894956588745,1.569061040878296]},{"weightList":[-0.8424948453903198,0.4788950979709625,0.9151992201805115,-0.004168270155787468,1.744531273841858]},{"weightList":[-1.7082910537719727,-1.0814391374588013,0.06458775699138642,0.9468305110931397,2.6260693073272707]},{"weightList":[-3.0652482509613039,-3.8433115482330324,-3.8696248531341554,-8.994258880615235,-1.5501437187194825]},{"weightList":[2.8102338314056398,-3.632493257522583,2.1509199142456056,-7.159151554107666,2.370593786239624]},{"weightList":[0.3041338324546814,-0.0764043852686882,2.9237380027770998,0.5560258030891419,0.5226302742958069]},{"weightList":[-1.4103094339370728,-0.7555770874023438,-2.680116653442383,-4.593767166137695,-0.33769649267196658]},{"weightList":[-1.8481866121292115,-1.2021324634552003,1.7006759643554688,1.0446767807006837,1.2329479455947877]},{"weightList":[1.510210633277893,0.3686303496360779,0.06005335599184036,-0.15076345205307008,0.319224089384079]},{"weightList":[-1.4128308296203614,0.8137233853340149,-4.013867378234863,0.09098037332296372,0.6300379633903503]},{"weightList":[-0.24593961238861085,2.8832473754882814,1.3641629219055176,3.1453425884246828,1.1420354843139649]},{"weightList":[0.7163255214691162,0.07925695180892945,3.5218632221221926,0.44048839807510378,-0.14057940244674684]},{"weightList":[-2.506466865539551,2.1007113456726076,-4.161869525909424,6.077975273132324,0.14089855551719666]},{"weightList":[-2.3716964721679689,2.188286781311035,0.2281642109155655,-0.10796353220939636,2.8806710243225099]},{"weightList":[-1.4302970170974732,0.719405472278595,1.4054265022277833,-0.627714991569519,2.1227128505706789]},{"weightList":[2.1309943199157717,1.5721970796585084,-1.405319333076477,3.570894956588745,1.569061040878296]},{"weightList":[-0.8424948453903198,0.4788950979709625,0.9151992201805115,-0.004168270155787468,1.744531273841858]},{"weightList":[-1.7082910537719727,-1.0814391374588013,0.06458775699138642,0.9468305110931397,2.6260693073272707]},{"weightList":[-3.0652482509613039,-3.8433115482330324,-3.8696248531341554,-8.994258880615235,-1.5501437187194825]},{"weightList":[2.8102338314056398,-3.632493257522583,2.1509199142456056,-7.159151554107666,2.370593786239624]},{"weightList":[0.3041338324546814,-0.0764043852686882,2.9237380027770998,0.5560258030891419,0.5226302742958069]},{"weightList":[-1.4103094339370728,-0.7555770874023438,-2.680116653442383,-4.593767166137695,-0.33769649267196658]},{"weightList":[-1.8481866121292115,-1.2021324634552003,1.7006759643554688,1.0446767807006837,1.2329479455947877]},{"weightList":[1.510210633277893,0.3686303496360779,0.06005335599184036,-0.15076345205307008,0.319224089384079]},{"weightList":[-1.4128308296203614,0.8137233853340149,-4.013867378234863,0.09098037332296372,0.6300379633903503]},{"weightList":[-0.24593961238861085,2.8832473754882814,1.3641629219055176,3.1453425884246828,1.1420354843139649]},{"weightList":[0.7163255214691162,0.07925695180892945,3.5218632221221926,0.44048839807510378,-0.14057940244674684]},{"weightList":[-2.506466865539551,2.1007113456726076,-4.161869525909424,6.077975273132324,0.14089855551719666]},{"weightList":[-2.3716964721679689,2.188286781311035,0.2281642109155655,-0.10796353220939636,2.8806710243225099]},{"weightList":[-1.4302970170974732,0.719405472278595,1.4054265022277833,-0.627714991569519,2.1227128505706789]},{"weightList":[2.1309943199157717,1.5721970796585084,-1.405319333076477,3.570894956588745,1.569061040878296]},{"weightList":[-0.8424948453903198,0.4788950979709625,0.9151992201805115,-0.004168270155787468,1.744531273841858]},{"weightList":[-1.7082910537719727,-1.0814391374588013,0.06458775699138642,0.9468305110931397,2.6260693073272707]},{"weightList":[-3.0652482509613039,-3.8433115482330324,-3.8696248531341554,-8.994258880615235,-1.5501437187194825]},{"weightList":[2.8102338314056398,-3.632493257522583,2.1509199142456056,-7.159151554107666,2.370593786239624]},{"weightList":[0.3041338324546814,-0.0764043852686882,2.9237380027770998,0.5560258030891419,0.5226302742958069]},{"weightList":[-1.4103094339370728,-0.7555770874023438,-2.680116653442383,-4.593767166137695,-0.33769649267196658]},{"weightList":[-1.8481866121292115,-1.2021324634552003,1.7006759643554688,1.0446767807006837,1.2329479455947877]},{"weightList":[1.510210633277893,0.3686303496360779,0.06005335599184036,-0.15076345205307008,0.319224089384079]},{"weightList":[-1.4128308296203614,0.8137233853340149,-4.013867378234863,0.09098037332296372,0.6300379633903503]},{"weightList":[-0.24593961238861085,2.8832473754882814,1.3641629219055176,3.1453425884246828,1.1420354843139649]},{"weightList":[0.7163255214691162,0.07925695180892945,3.5218632221221926,0.44048839807510378,-0.14057940244674684]},{"weightList":[-2.506466865539551,2.1007113456726076,-4.161869525909424,6.077975273132324,0.14089855551719666]},{"weightList":[-2.3716964721679689,2.188286781311035,0.2281642109155655,-0.10796353220939636,2.8806710243225099]},{"weightList":[-1.4302970170974732,0.719405472278595,1.4054265022277833,-0.627714991569519,2.1227128505706789]},{"weightList":[2.1309943199157717,1.5721970796585084,-1.405319333076477,3.570894956588745,1.569061040878296]},{"weightList":[-0.8424948453903198,0.4788950979709625,0.9151992201805115,-0.004168270155787468,1.744531273841858]},{"weightList":[-1.7082910537719727,-1.0814391374588013,0.06458775699138642,0.9468305110931397,2.6260693073272707]},{"weightList":[-3.0652482509613039,-3.8433115482330324,-3.8696248531341554,-8.994258880615235,-1.5501437187194825]},{"weightList":[2.8102338314056398,-3.632493257522583,2.1509199142456056,-7.159151554107666,2.370593786239624]},{"weightList":[0.3041338324546814,-0.0764043852686882,2.9237380027770998,0.5560258030891419,0.5226302742958069]},{"weightList":[-1.4103094339370728,-0.7555770874023438,-2.680116653442383,-4.593767166137695,-0.33769649267196658]},{"weightList":[-1.8481866121292115,-1.2021324634552003,1.7006759643554688,1.0446767807006837,1.2329479455947877]},{"weightList":[1.510210633277893,0.3686303496360779,0.06005335599184036,-0.15076345205307008,0.319224089384079]},{"weightList":[-1.4128308296203614,0.8137233853340149,-4.013867378234863,0.09098037332296372,0.6300379633903503]},{"weightList":[-0.24593961238861085,2.8832473754882814,1.3641629219055176,3.1453425884246828,1.1420354843139649]},{"weightList":[0.7163255214691162,0.07925695180892945,3.5218632221221926,0.44048839807510378,-0.14057940244674684]},{"weightList":[-2.506466865539551,2.1007113456726076,-4.161869525909424,6.077975273132324,0.14089855551719666]},{"weightList":[-2.3716964721679689,2.188286781311035,0.2281642109155655,-0.10796353220939636,2.8806710243225099]},{"weightList":[-1.4302970170974732,0.719405472278595,1.4054265022277833,-0.627714991569519,2.1227128505706789]},{"weightList":[2.1309943199157717,1.5721970796585084,-1.405319333076477,3.570894956588745,1.569061040878296]},{"weightList":[-0.8424948453903198,0.4788950979709625,0.9151992201805115,-0.004168270155787468,1.744531273841858]},{"weightList":[-1.7082910537719727,-1.0814391374588013,0.06458775699138642,0.9468305110931397,2.6260693073272707]},{"weightList":[-3.0652482509613039,-3.8433115482330324,-3.8696248531341554,-8.994258880615235,-1.5501437187194825]},{"weightList":[2.8102338314056398,-3.632493257522583,2.1509199142456056,-7.159151554107666,2.370593786239624]},{"weightList":[0.3041338324546814,-0.0764043852686882,2.9237380027770998,0.5560258030891419,0.5226302742958069]},{"weightList":[-1.4103094339370728,-0.7555770874023438,-2.680116653442383,-4.593767166137695,-0.33769649267196658]},{"weightList":[-1.8481866121292115,-1.2021324634552003,1.7006759643554688,1.0446767807006837,1.2329479455947877]},{"weightList":[1.510210633277893,0.3686303496360779,0.06005335599184036,-0.15076345205307008,0.319224089384079]},{"weightList":[-1.4128308296203614,0.8137233853340149,-4.013867378234863,0.09098037332296372,0.6300379633903503]},{"weightList":[-0.24593961238861085,2.8832473754882814,1.3641629219055176,3.1453425884246828,1.1420354843139649]},{"weightList":[0.7163255214691162,0.07925695180892945,3.5218632221221926,0.44048839807510378,-0.14057940244674684]},{"weightList":[-2.506466865539551,2.1007113456726076,-4.161869525909424,6.077975273132324,0.14089855551719666]},{"weightList":[-2.3716964721679689,2.188286781311035,0.2281642109155655,-0.10796353220939636,2.8806710243225099]},{"weightList":[-1.4302970170974732,0.719405472278595,1.4054265022277833,-0.627714991569519,2.1227128505706789]},{"weightList":[2.1309943199157717,1.5721970796585084,-1.405319333076477,3.570894956588745,1.569061040878296]},{"weightList":[-0.8424948453903198,0.4788950979709625,0.9151992201805115,-0.004168270155787468,1.744531273841858]},{"weightList":[-1.7082910537719727,-1.0814391374588013,0.06458775699138642,0.9468305110931397,2.6260693073272707]},{"weightList":[-3.0652482509613039,-3.8433115482330324,-3.8696248531341554,-8.994258880615235,-1.5501437187194825]},{"weightList":[2.8102338314056398,-3.632493257522583,2.1509199142456056,-7.159151554107666,2.370593786239624]},{"weightList":[0.3041338324546814,-0.0764043852686882,2.9237380027770998,0.5560258030891419,0.5226302742958069]},{"weightList":[-1.4103094339370728,-0.7555770874023438,-2.680116653442383,-4.593767166137695,-0.33769649267196658]},{"weightList":[-1.8481866121292115,-1.2021324634552003,1.7006759643554688,1.0446767807006837,1.2329479455947877]},{"weightList":[1.510210633277893,0.3686303496360779,0.06005335599184036,-0.15076345205307008,0.319224089384079]},{"weightList":[-1.4128308296203614,0.8137233853340149,-4.013867378234863,0.09098037332296372,0.6300379633903503]},{"weightList":[-0.24593961238861085,2.8832473754882814,1.3641629219055176,3.1453425884246828,1.1420354843139649]},{"weightList":[0.7163255214691162,0.07925695180892945,3.5218632221221926,0.44048839807510378,-0.14057940244674684]},{"weightList":[-2.506466865539551,2.1007113456726076,-4.161869525909424,6.077975273132324,0.14089855551719666]},{"weightList":[-2.3716964721679689,2.188286781311035,0.2281642109155655,-0.10796353220939636,2.8806710243225099]},{"weightList":[-1.4302970170974732,0.719405472278595,1.4054265022277833,-0.627714991569519,2.1227128505706789]},{"weightList":[2.1309943199157717,1.5721970796585084,-1.405319333076477,3.570894956588745,1.569061040878296]},{"weightList":[-0.8424948453903198,0.4788950979709625,0.9151992201805115,-0.004168270155787468,1.744531273841858]},{"weightList":[-1.7082910537719727,-1.0814391374588013,0.06458775699138642,0.9468305110931397,2.6260693073272707]},{"weightList":[-3.0652482509613039,-3.8433115482330324,-3.8696248531341554,-8.994258880615235,-1.5501437187194825]},{"weightList":[2.8102338314056398,-3.632493257522583,2.1509199142456056,-7.159151554107666,2.370593786239624]},{"weightList":[0.3041338324546814,-0.0764043852686882,2.9237380027770998,0.5560258030891419,0.5226302742958069]},{"weightList":[-1.4103094339370728,-0.7555770874023438,-2.680116653442383,-4.593767166137695,-0.33769649267196658]},{"weightList":[-1.8481866121292115,-1.2021324634552003,1.7006759643554688,1.0446767807006837,1.2329479455947877]},{"weightList":[1.510210633277893,0.3686303496360779,0.06005335599184036,-0.15076345205307008,0.319224089384079]},{"weightList":[-1.4128308296203614,0.8137233853340149,-4.013867378234863,0.09098037332296372,0.6300379633903503]},{"weightList":[-0.24593961238861085,2.8832473754882814,1.3641629219055176,3.1453425884246828,1.1420354843139649]},{"weightList":[0.7163255214691162,0.07925695180892945,3.5218632221221926,0.44048839807510378,-0.14057940244674684]},{"weightList":[-2.506466865539551,2.1007113456726076,-4.161869525909424,6.077975273132324,0.14089855551719666]},{"weightList":[-2.3716964721679689,2.188286781311035,0.2281642109155655,-0.10796353220939636,2.8806710243225099]},{"weightList":[-1.4302970170974732,0.719405472278595,1.4054265022277833,-0.627714991569519,2.1227128505706789]},{"weightList":[2.1309943199157717,1.5721970796585084,-1.405319333076477,3.570894956588745,1.569061040878296]},{"weightList":[-0.8424948453903198,0.4788950979709625,0.9151992201805115,-0.004168270155787468,1.744531273841858]},{"weightList":[-1.7082910537719727,-1.0814391374588013,0.06458775699138642,0.9468305110931397,2.6260693073272707]},{"weightList":[-3.0652482509613039,-3.8433115482330324,-3.8696248531341554,-8.994258880615235,-1.5501437187194825]},{"weightList":[2.8102338314056398,-3.632493257522583,2.1509199142456056,-7.159151554107666,2.370593786239624]},{"weightList":[0.3041338324546814,-0.0764043852686882,2.9237380027770998,0.5560258030891419,0.5226302742958069]},{"weightList":[-1.4103094339370728,-0.7555770874023438,-2.680116653442383,-4.593767166137695,-0.33769649267196658]},{"weightList":[-1.8481866121292115,-1.2021324634552003,1.7006759643554688,1.0446767807006837,1.2329479455947877]},{"weightList":[1.510210633277893,0.3686303496360779,0.06005335599184036,-0.15076345205307008,0.319224089384079]},{"weightList":[-1.4128308296203614,0.8137233853340149,-4.013867378234863,0.09098037332296372,0.6300379633903503]},{"weightList":[-0.24593961238861085,2.8832473754882814,1.3641629219055176,3.1453425884246828,1.1420354843139649]},{"weightList":[0.7163255214691162,0.07925695180892945,3.5218632221221926,0.44048839807510378,-0.14057940244674684]},{"weightList":[-2.506466865539551,2.1007113456726076,-4.161869525909424,6.077975273132324,0.14089855551719666]},{"weightList":[-2.3716964721679689,2.188286781311035,0.2281642109155655,-0.10796353220939636,2.8806710243225099]},{"weightList":[-1.4302970170974732,0.719405472278595,1.4054265022277833,-0.627714991569519,2.1227128505706789]},{"weightList":[2.1309943199157717,1.5721970796585084,-1.405319333076477,3.570894956588745,1.569061040878296]},{"weightList":[-0.8424948453903198,0.4788950979709625,0.9151992201805115,-0.004168270155787468,1.744531273841858]},{"weightList":[-1.7082910537719727,-1.0814391374588013,0.06458775699138642,0.9468305110931397,2.6260693073272707]},{"weightList":[-3.0652482509613039,-3.8433115482330324,-3.8696248531341554,-8.994258880615235,-1.5501437187194825]},{"weightList":[2.8102338314056398,-3.632493257522583,2.1509199142456056,-7.159151554107666,2.370593786239624]},{"weightList":[0.3041338324546814,-0.0764043852686882,2.9237380027770998,0.5560258030891419,0.5226302742958069]},{"weightList":[-1.4103094339370728,-0.7555770874023438,-2.680116653442383,-4.593767166137695,-0.33769649267196658]},{"weightList":[-1.8481866121292115,-1.2021324634552003,1.7006759643554688,1.0446767807006837,1.2329479455947877]},{"weightList":[1.510210633277893,0.3686303496360779,0.06005335599184036,-0.15076345205307008,0.319224089384079]},{"weightList":[-1.4128308296203614,0.8137233853340149,-4.013867378234863,0.09098037332296372,0.6300379633903503]},{"weightList":[-0.24593961238861085,2.8832473754882814,1.3641629219055176,3.1453425884246828,1.1420354843139649]},{"weightList":[0.7163255214691162,0.07925695180892945,3.5218632221221926,0.44048839807510378,-0.14057940244674684]},{"weightList":[-2.506466865539551,2.1007113456726076,-4.161869525909424,6.077975273132324,0.14089855551719666]},{"weightList":[-2.3716964721679689,2.188286781311035,0.2281642109155655,-0.10796353220939636,2.8806710243225099]},{"weightList":[-1.4302970170974732,0.719405472278595,1.4054265022277833,-0.627714991569519,2.1227128505706789]},{"weightList":[2.1309943199157717,1.5721970796585084,-1.405319333076477,3.570894956588745,1.569061040878296]},{"weightList":[-0.8424948453903198,0.4788950979709625,0.9151992201805115,-0.004168270155787468,1.744531273841858]},{"weightList":[-1.7082910537719727,-1.0814391374588013,0.06458775699138642,0.9468305110931397,2.6260693073272707]},{"weightList":[-3.0652482509613039,-3.8433115482330324,-3.8696248531341554,-8.994258880615235,-1.5501437187194825]},{"weightList":[2.8102338314056398,-3.632493257522583,2.1509199142456056,-7.159151554107666,2.370593786239624]},{"weightList":[0.3041338324546814,-0.0764043852686882,2.9237380027770998,0.5560258030891419,0.5226302742958069]},{"weightList":[-1.4103094339370728,-0.7555770874023438,-2.680116653442383,-4.593767166137695,-0.33769649267196658]},{"weightList":[-1.8481866121292115,-1.2021324634552003,1.7006759643554688,1.0446767807006837,1.2329479455947877]},{"weightList":[1.510210633277893,0.3686303496360779,0.06005335599184036,-0.15076345205307008,0.319224089384079]},{"weightList":[-1.4128308296203614,0.8137233853340149,-4.013867378234863,0.09098037332296372,0.6300379633903503]},{"weightList":[-0.24593961238861085,2.8832473754882814,1.3641629219055176,3.1453425884246828,1.1420354843139649]},{"weightList":[0.7163255214691162,0.07925695180892945,3.5218632221221926,0.44048839807510378,-0.14057940244674684]},{"weightList":[-2.506466865539551,2.1007113456726076,-4.161869525909424,6.077975273132324,0.14089855551719666]},{"weightList":[-2.3716964721679689,2.188286781311035,0.2281642109155655,-0.10796353220939636,2.8806710243225099]},{"weightList":[-1.4302970170974732,0.719405472278595,1.4054265022277833,-0.627714991569519,2.1227128505706789]},{"weightList":[2.1309943199157717,1.5721970796585084,-1.405319333076477,3.570894956588745,1.569061040878296]},{"weightList":[-0.8424948453903198,0.4788950979709625,0.9151992201805115,-0.004168270155787468,1.744531273841858]},{"weightList":[-1.7082910537719727,-1.0814391374588013,0.06458775699138642,0.9468305110931397,2.6260693073272707]},{"weightList":[-3.0652482509613039,-3.8433115482330324,-3.8696248531341554,-8.994258880615235,-1.5501437187194825]},{"weightList":[2.8102338314056398,-3.632493257522583,2.1509199142456056,-7.159151554107666,2.370593786239624]},{"weightList":[0.3041338324546814,-0.0764043852686882,2.9237380027770998,0.5560258030891419,0.5226302742958069]},{"weightList":[-1.4103094339370728,-0.7555770874023438,-2.680116653442383,-4.593767166137695,-0.33769649267196658]},{"weightList":[-1.8481866121292115,-1.2021324634552003,1.7006759643554688,1.0446767807006837,1.2329479455947877]},{"weightList":[1.510210633277893,0.3686303496360779,0.06005335599184036,-0.15076345205307008,0.319224089384079]},{"weightList":[-1.4128308296203614,0.8137233853340149,-4.013867378234863,0.09098037332296372,0.6300379633903503]},{"weightList":[-0.24593961238861085,2.8832473754882814,1.3641629219055176,3.1453425884246828,1.1420354843139649]},{"weightList":[0.7163255214691162,0.07925695180892945,3.5218632221221926,0.44048839807510378,-0.14057940244674684]},{"weightList":[-2.506466865539551,2.1007113456726076,-4.161869525909424,6.077975273132324,0.14089855551719666]},{"weightList":[-2.3716964721679689,2.188286781311035,0.2281642109155655,-0.10796353220939636,2.8806710243225099]},{"weightList":[-1.4302970170974732,0.719405472278595,1.4054265022277833,-0.627714991569519,2.1227128505706789]},{"weightList":[2.1309943199157717,1.5721970796585084,-1.405319333076477,3.570894956588745,1.569061040878296]},{"weightList":[-0.8424948453903198,0.4788950979709625,0.9151992201805115,-0.004168270155787468,1.744531273841858]},{"weightList":[-1.7082910537719727,-1.0814391374588013,0.06458775699138642,0.9468305110931397,2.6260693073272707]},{"weightList":[-3.0652482509613039,-3.8433115482330324,-3.8696248531341554,-8.994258880615235,-1.5501437187194825]},{"weightList":[2.8102338314056398,-3.632493257522583,2.1509199142456056,-7.159151554107666,2.370593786239624]},{"weightList":[0.3041338324546814,-0.0764043852686882,2.9237380027770998,0.5560258030891419,0.5226302742958069]},{"weightList":[-1.4103094339370728,-0.7555770874023438,-2.680116653442383,-4.593767166137695,-0.33769649267196658]},{"weightList":[-1.8481866121292115,-1.2021324634552003,1.7006759643554688,1.0446767807006837,1.2329479455947877]},{"weightList":[1.510210633277893,0.3686303496360779,0.06005335599184036,-0.15076345205307008,0.319224089384079]},{"weightList":[-1.4128308296203614,0.8137233853340149,-4.013867378234863,0.09098037332296372,0.6300379633903503]},{"weightList":[-0.24593961238861085,2.8832473754882814,1.3641629219055176,3.1453425884246828,1.1420354843139649]},{"weightList":[0.7163255214691162,0.07925695180892945,3.5218632221221926,0.44048839807510378,-0.14057940244674684]},{"weightList":[-2.506466865539551,2.1007113456726076,-4.161869525909424,6.077975273132324,0.14089855551719666]},{"weightList":[-2.3716964721679689,2.188286781311035,0.2281642109155655,-0.10796353220939636,2.8806710243225099]}],"hiddenLayerWeights":[{"weightList":[-0.2953305244445801,-1.0622984170913697,-0.08727478981018067,-0.43261078000068667,-2.8669726848602297,2.857212781906128,0.36307474970817568,-0.05076674371957779,-0.33557653427124026,-0.9379716515541077,-0.9983227849006653,2.646890163421631,-0.14154691994190217,-0.8353085517883301,-0.3030984401702881,-0.000931341084651649]},{"weightList":[1.7018225193023682,0.46598660945892336,0.7254397869110107,-2.0054404735565187,-4.635003089904785,-3.977271556854248,0.31519395112991335,-1.6382335424423218,-1.8329148292541505,0.5678961277008057,-0.6184608936309815,0.7825624942779541,0.617648720741272,2.818380832672119,2.9264557361602785,0.768029510974884]},{"weightList":[-0.43122225999832156,-2.863455057144165,-0.18846258521080018,-0.9140059351921082,-7.334782123565674,4.934385776519775,0.6983954310417175,-3.2576286792755129,0.5547568202018738,-0.5375140309333801,-2.3354904651641847,0.8410330414772034,1.8482469320297242,-5.014431476593018,-0.3270789086818695,-0.16041234135627747]}]}