{"inputLayerWeights":[{"weightList":[-3.334840774536133,0.359064519405365,3.5980684757232668,-1.0737918615341187,1.7932071685791016]},{"weightList":[1.0116572380065919,-4.311816215515137,-0.24980057775974275,-0.25398582220077517,0.1367194950580597]},{"weightList":[3.4719481468200685,3.84648060798645,4.4715447425842289,8.22169017791748,1.4985864162445069]},{"weightList":[3.6774330139160158,0.2670799791812897,-3.3378326892852785,-0.2613352835178375,3.9955577850341799]},{"weightList":[-1.58781099319458,0.5962245464324951,-4.507574558258057,-3.1220686435699465,1.0136373043060303]},{"weightList":[-2.085756301879883,2.5040946006774904,-3.919520854949951,7.841657638549805,-0.31939566135406496]},{"weightList":[3.3517355918884279,3.4328510761260988,-2.513882637023926,-2.055983304977417,-1.5270018577575684]},{"weightList":[1.0692238807678223,-0.774138867855072,-0.006955403834581375,0.7585818767547607,3.978292465209961]},{"weightList":[2.1627604961395265,-3.8505587577819826,3.9356772899627687,-4.846969127655029,0.9752051830291748]},{"weightList":[1.299132227897644,-6.929871082305908,-1.5389562845230103,-3.5485470294952394,-0.308928519487381]},{"weightList":[2.320557117462158,-0.5411298274993897,2.1304657459259035,-0.1443118453025818,2.7755632400512697]},{"weightList":[4.078436851501465,5.136382579803467,6.321356296539307,10.130056381225586,0.7667219042778015]},{"weightList":[-4.1700615882873539,1.8398888111114503,-2.1070263385772707,-3.170862913131714,0.3573039472103119]},{"weightList":[1.772547721862793,-2.0562944412231447,-1.9573158025741578,1.802901268005371,0.8352482914924622]},{"weightList":[-4.250995635986328,6.636349678039551,-7.415377616882324,11.590203285217286,-0.684398889541626]},{"weightList":[-3.334840774536133,0.359064519405365,3.5980684757232668,-1.0737918615341187,1.7932071685791016]},{"weightList":[1.0116572380065919,-4.311816215515137,-0.24980057775974275,-0.25398582220077517,0.1367194950580597]},{"weightList":[3.4719481468200685,3.84648060798645,4.4715447425842289,8.22169017791748,1.4985864162445069]},{"weightList":[3.6774330139160158,0.2670799791812897,-3.3378326892852785,-0.2613352835178375,3.9955577850341799]},{"weightList":[-1.58781099319458,0.5962245464324951,-4.507574558258057,-3.1220686435699465,1.0136373043060303]},{"weightList":[-2.085756301879883,2.5040946006774904,-3.919520854949951,7.841657638549805,-0.31939566135406496]},{"weightList":[3.3517355918884279,3.4328510761260988,-2.513882637023926,-2.055983304977417,-1.5270018577575684]},{"weightList":[1.0692238807678223,-0.774138867855072,-0.006955403834581375,0.7585818767547607,3.978292465209961]},{"weightList":[2.1627604961395265,-3.8505587577819826,3.9356772899627687,-4.846969127655029,0.9752051830291748]},{"weightList":[1.299132227897644,-6.929871082305908,-1.5389562845230103,-3.5485470294952394,-0.308928519487381]},{"weightList":[2.320557117462158,-0.5411298274993897,2.1304657459259035,-0.1443118453025818,2.7755632400512697]},{"weightList":[4.078436851501465,5.136382579803467,6.321356296539307,10.130056381225586,0.7667219042778015]},{"weightList":[-4.1700615882873539,1.8398888111114503,-2.1070263385772707,-3.170862913131714,0.3573039472103119]},{"weightList":[1.772547721862793,-2.0562944412231447,-1.9573158025741578,1.802901268005371,0.8352482914924622]},{"weightList":[-4.250995635986328,6.636349678039551,-7.415377616882324,11.590203285217286,-0.684398889541626]},{"weightList":[-3.334840774536133,0.359064519405365,3.5980684757232668,-1.0737918615341187,1.7932071685791016]},{"weightList":[1.0116572380065919,-4.311816215515137,-0.24980057775974275,-0.25398582220077517,0.1367194950580597]},{"weightList":[3.4719481468200685,3.84648060798645,4.4715447425842289,8.22169017791748,1.4985864162445069]},{"weightList":[3.6774330139160158,0.2670799791812897,-3.3378326892852785,-0.2613352835178375,3.9955577850341799]},{"weightList":[-1.58781099319458,0.5962245464324951,-4.507574558258057,-3.1220686435699465,1.0136373043060303]},{"weightList":[-2.085756301879883,2.5040946006774904,-3.919520854949951,7.841657638549805,-0.31939566135406496]},{"weightList":[3.3517355918884279,3.4328510761260988,-2.513882637023926,-2.055983304977417,-1.5270018577575684]},{"weightList":[1.0692238807678223,-0.774138867855072,-0.006955403834581375,0.7585818767547607,3.978292465209961]},{"weightList":[2.1627604961395265,-3.8505587577819826,3.9356772899627687,-4.846969127655029,0.9752051830291748]},{"weightList":[1.299132227897644,-6.929871082305908,-1.5389562845230103,-3.5485470294952394,-0.308928519487381]},{"weightList":[2.320557117462158,-0.5411298274993897,2.1304657459259035,-0.1443118453025818,2.7755632400512697]},{"weightList":[4.078436851501465,5.136382579803467,6.321356296539307,10.130056381225586,0.7667219042778015]},{"weightList":[-4.1700615882873539,1.8398888111114503,-2.1070263385772707,-3.170862913131714,0.3573039472103119]},{"weightList":[1.772547721862793,-2.0562944412231447,-1.9573158025741578,1.802901268005371,0.8352482914924622]},{"weightList":[-4.250995635986328,6.636349678039551,-7.415377616882324,11.590203285217286,-0.684398889541626]},{"weightList":[-3.334840774536133,0.359064519405365,3.5980684757232668,-1.0737918615341187,1.7932071685791016]},{"weightList":[1.0116572380065919,-4.311816215515137,-0.24980057775974275,-0.25398582220077517,0.1367194950580597]},{"weightList":[3.4719481468200685,3.84648060798645,4.4715447425842289,8.22169017791748,1.4985864162445069]},{"weightList":[3.6774330139160158,0.2670799791812897,-3.3378326892852785,-0.2613352835178375,3.9955577850341799]},{"weightList":[-1.58781099319458,0.5962245464324951,-4.507574558258057,-3.1220686435699465,1.0136373043060303]},{"weightList":[-2.085756301879883,2.5040946006774904,-3.919520854949951,7.841657638549805,-0.31939566135406496]},{"weightList":[3.3517355918884279,3.4328510761260988,-2.513882637023926,-2.055983304977417,-1.5270018577575684]},{"weightList":[1.0692238807678223,-0.774138867855072,-0.006955403834581375,0.7585818767547607,3.978292465209961]},{"weightList":[2.1627604961395265,-3.8505587577819826,3.9356772899627687,-4.846969127655029,0.9752051830291748]},{"weightList":[1.299132227897644,-6.929871082305908,-1.5389562845230103,-3.5485470294952394,-0.308928519487381]},{"weightList":[2.320557117462158,-0.5411298274993897,2.1304657459259035,-0.1443118453025818,2.7755632400512697]},{"weightList":[4.078436851501465,5.136382579803467,6.321356296539307,10.130056381225586,0.7667219042778015]},{"weightList":[-4.1700615882873539,1.8398888111114503,-2.1070263385772707,-3.170862913131714,0.3573039472103119]},{"weightList":[1.772547721862793,-2.0562944412231447,-1.9573158025741578,1.802901268005371,0.8352482914924622]},{"weightList":[-4.250995635986328,6.636349678039551,-7.415377616882324,11.590203285217286,-0.684398889541626]},{"weightList":[-3.334840774536133,0.359064519405365,3.5980684757232668,-1.0737918615341187,1.7932071685791016]},{"weightList":[1.0116572380065919,-4.311816215515137,-0.24980057775974275,-0.25398582220077517,0.1367194950580597]},{"weightList":[3.4719481468200685,3.84648060798645,4.4715447425842289,8.22169017791748,1.4985864162445069]},{"weightList":[3.6774330139160158,0.2670799791812897,-3.3378326892852785,-0.2613352835178375,3.9955577850341799]},{"weightList":[-1.58781099319458,0.5962245464324951,-4.507574558258057,-3.1220686435699465,1.0136373043060303]},{"weightList":[-2.085756301879883,2.5040946006774904,-3.919520854949951,7.841657638549805,-0.31939566135406496]},{"weightList":[3.3517355918884279,3.4328510761260988,-2.513882637023926,-2.055983304977417,-1.5270018577575684]},{"weightList":[1.0692238807678223,-0.774138867855072,-0.006955403834581375,0.7585818767547607,3.978292465209961]},{"weightList":[2.1627604961395265,-3.8505587577819826,3.9356772899627687,-4.846969127655029,0.9752051830291748]},{"weightList":[1.299132227897644,-6.929871082305908,-1.5389562845230103,-3.5485470294952394,-0.308928519487381]},{"weightList":[2.320557117462158,-0.5411298274993897,2.1304657459259035,-0.1443118453025818,2.7755632400512697]},{"weightList":[4.078436851501465,5.136382579803467,6.321356296539307,10.130056381225586,0.7667219042778015]},{"weightList":[-4.1700615882873539,1.8398888111114503,-2.1070263385772707,-3.170862913131714,0.3573039472103119]},{"weightList":[1.772547721862793,-2.0562944412231447,-1.9573158025741578,1.802901268005371,0.8352482914924622]},{"weightList":[-4.250995635986328,6.636349678039551,-7.415377616882324,11.590203285217286,-0.684398889541626]},{"weightList":[-3.334840774536133,0.359064519405365,3.5980684757232668,-1.0737918615341187,1.7932071685791016]},{"weightList":[1.0116572380065919,-4.311816215515137,-0.24980057775974275,-0.25398582220077517,0.1367194950580597]},{"weightList":[3.4719481468200685,3.84648060798645,4.4715447425842289,8.22169017791748,1.4985864162445069]},{"weightList":[3.6774330139160158,0.2670799791812897,-3.3378326892852785,-0.2613352835178375,3.9955577850341799]},{"weightList":[-1.58781099319458,0.5962245464324951,-4.507574558258057,-3.1220686435699465,1.0136373043060303]},{"weightList":[-2.085756301879883,2.5040946006774904,-3.919520854949951,7.841657638549805,-0.31939566135406496]},{"weightList":[3.3517355918884279,3.4328510761260988,-2.513882637023926,-2.055983304977417,-1.5270018577575684]},{"weightList":[1.0692238807678223,-0.774138867855072,-0.006955403834581375,0.7585818767547607,3.978292465209961]},{"weightList":[2.1627604961395265,-3.8505587577819826,3.9356772899627687,-4.846969127655029,0.9752051830291748]},{"weightList":[1.299132227897644,-6.929871082305908,-1.5389562845230103,-3.5485470294952394,-0.308928519487381]},{"weightList":[2.320557117462158,-0.5411298274993897,2.1304657459259035,-0.1443118453025818,2.7755632400512697]},{"weightList":[4.078436851501465,5.136382579803467,6.321356296539307,10.130056381225586,0.7667219042778015]},{"weightList":[-4.1700615882873539,1.8398888111114503,-2.1070263385772707,-3.170862913131714,0.3573039472103119]},{"weightList":[1.772547721862793,-2.0562944412231447,-1.9573158025741578,1.802901268005371,0.8352482914924622]},{"weightList":[-4.250995635986328,6.636349678039551,-7.415377616882324,11.590203285217286,-0.684398889541626]},{"weightList":[-3.334840774536133,0.359064519405365,3.5980684757232668,-1.0737918615341187,1.7932071685791016]},{"weightList":[1.0116572380065919,-4.311816215515137,-0.24980057775974275,-0.25398582220077517,0.1367194950580597]},{"weightList":[3.4719481468200685,3.84648060798645,4.4715447425842289,8.22169017791748,1.4985864162445069]},{"weightList":[3.6774330139160158,0.2670799791812897,-3.3378326892852785,-0.2613352835178375,3.9955577850341799]},{"weightList":[-1.58781099319458,0.5962245464324951,-4.507574558258057,-3.1220686435699465,1.0136373043060303]},{"weightList":[-2.085756301879883,2.5040946006774904,-3.919520854949951,7.841657638549805,-0.31939566135406496]},{"weightList":[3.3517355918884279,3.4328510761260988,-2.513882637023926,-2.055983304977417,-1.5270018577575684]},{"weightList":[1.0692238807678223,-0.774138867855072,-0.006955403834581375,0.7585818767547607,3.978292465209961]},{"weightList":[2.1627604961395265,-3.8505587577819826,3.9356772899627687,-4.846969127655029,0.9752051830291748]},{"weightList":[1.299132227897644,-6.929871082305908,-1.5389562845230103,-3.5485470294952394,-0.308928519487381]},{"weightList":[2.320557117462158,-0.5411298274993897,2.1304657459259035,-0.1443118453025818,2.7755632400512697]},{"weightList":[4.078436851501465,5.136382579803467,6.321356296539307,10.130056381225586,0.7667219042778015]},{"weightList":[-4.1700615882873539,1.8398888111114503,-2.1070263385772707,-3.170862913131714,0.3573039472103119]},{"weightList":[1.772547721862793,-2.0562944412231447,-1.9573158025741578,1.802901268005371,0.8352482914924622]},{"weightList":[-4.250995635986328,6.636349678039551,-7.415377616882324,11.590203285217286,-0.684398889541626]},{"weightList":[-3.334840774536133,0.359064519405365,3.5980684757232668,-1.0737918615341187,1.7932071685791016]},{"weightList":[1.0116572380065919,-4.311816215515137,-0.24980057775974275,-0.25398582220077517,0.1367194950580597]},{"weightList":[3.4719481468200685,3.84648060798645,4.4715447425842289,8.22169017791748,1.4985864162445069]},{"weightList":[3.6774330139160158,0.2670799791812897,-3.3378326892852785,-0.2613352835178375,3.9955577850341799]},{"weightList":[-1.58781099319458,0.5962245464324951,-4.507574558258057,-3.1220686435699465,1.0136373043060303]},{"weightList":[-2.085756301879883,2.5040946006774904,-3.919520854949951,7.841657638549805,-0.31939566135406496]},{"weightList":[3.3517355918884279,3.4328510761260988,-2.513882637023926,-2.055983304977417,-1.5270018577575684]},{"weightList":[1.0692238807678223,-0.774138867855072,-0.006955403834581375,0.7585818767547607,3.978292465209961]},{"weightList":[2.1627604961395265,-3.8505587577819826,3.9356772899627687,-4.846969127655029,0.9752051830291748]},{"weightList":[1.299132227897644,-6.929871082305908,-1.5389562845230103,-3.5485470294952394,-0.308928519487381]},{"weightList":[2.320557117462158,-0.5411298274993897,2.1304657459259035,-0.1443118453025818,2.7755632400512697]},{"weightList":[4.078436851501465,5.136382579803467,6.321356296539307,10.130056381225586,0.7667219042778015]},{"weightList":[-4.1700615882873539,1.8398888111114503,-2.1070263385772707,-3.170862913131714,0.3573039472103119]},{"weightList":[1.772547721862793,-2.0562944412231447,-1.9573158025741578,1.802901268005371,0.8352482914924622]},{"weightList":[-4.250995635986328,6.636349678039551,-7.415377616882324,11.590203285217286,-0.684398889541626]},{"weightList":[-3.334840774536133,0.359064519405365,3.5980684757232668,-1.0737918615341187,1.7932071685791016]},{"weightList":[1.0116572380065919,-4.311816215515137,-0.24980057775974275,-0.25398582220077517,0.1367194950580597]},{"weightList":[3.4719481468200685,3.84648060798645,4.4715447425842289,8.22169017791748,1.4985864162445069]},{"weightList":[3.6774330139160158,0.2670799791812897,-3.3378326892852785,-0.2613352835178375,3.9955577850341799]},{"weightList":[-1.58781099319458,0.5962245464324951,-4.507574558258057,-3.1220686435699465,1.0136373043060303]},{"weightList":[-2.085756301879883,2.5040946006774904,-3.919520854949951,7.841657638549805,-0.31939566135406496]},{"weightList":[3.3517355918884279,3.4328510761260988,-2.513882637023926,-2.055983304977417,-1.5270018577575684]},{"weightList":[1.0692238807678223,-0.774138867855072,-0.006955403834581375,0.7585818767547607,3.978292465209961]},{"weightList":[2.1627604961395265,-3.8505587577819826,3.9356772899627687,-4.846969127655029,0.9752051830291748]},{"weightList":[1.299132227897644,-6.929871082305908,-1.5389562845230103,-3.5485470294952394,-0.308928519487381]},{"weightList":[2.320557117462158,-0.5411298274993897,2.1304657459259035,-0.1443118453025818,2.7755632400512697]},{"weightList":[4.078436851501465,5.136382579803467,6.321356296539307,10.130056381225586,0.7667219042778015]},{"weightList":[-4.1700615882873539,1.8398888111114503,-2.1070263385772707,-3.170862913131714,0.3573039472103119]},{"weightList":[1.772547721862793,-2.0562944412231447,-1.9573158025741578,1.802901268005371,0.8352482914924622]},{"weightList":[-4.250995635986328,6.636349678039551,-7.415377616882324,11.590203285217286,-0.684398889541626]},{"weightList":[-3.334840774536133,0.359064519405365,3.5980684757232668,-1.0737918615341187,1.7932071685791016]},{"weightList":[1.0116572380065919,-4.311816215515137,-0.24980057775974275,-0.25398582220077517,0.1367194950580597]},{"weightList":[3.4719481468200685,3.84648060798645,4.4715447425842289,8.22169017791748,1.4985864162445069]},{"weightList":[3.6774330139160158,0.2670799791812897,-3.3378326892852785,-0.2613352835178375,3.9955577850341799]},{"weightList":[-1.58781099319458,0.5962245464324951,-4.507574558258057,-3.1220686435699465,1.0136373043060303]},{"weightList":[-2.085756301879883,2.5040946006774904,-3.919520854949951,7.841657638549805,-0.31939566135406496]},{"weightList":[3.3517355918884279,3.4328510761260988,-2.513882637023926,-2.055983304977417,-1.5270018577575684]},{"weightList":[1.0692238807678223,-0.774138867855072,-0.006955403834581375,0.7585818767547607,3.978292465209961]},{"weightList":[2.1627604961395265,-3.8505587577819826,3.9356772899627687,-4.846969127655029,0.9752051830291748]},{"weightList":[1.299132227897644,-6.929871082305908,-1.5389562845230103,-3.5485470294952394,-0.308928519487381]},{"weightList":[2.320557117462158,-0.5411298274993897,2.1304657459259035,-0.1443118453025818,2.7755632400512697]},{"weightList":[4.078436851501465,5.136382579803467,6.321356296539307,10.130056381225586,0.7667219042778015]},{"weightList":[-4.1700615882873539,1.8398888111114503,-2.1070263385772707,-3.170862913131714,0.3573039472103119]},{"weightList":[1.772547721862793,-2.0562944412231447,-1.9573158025741578,1.802901268005371,0.8352482914924622]},{"weightList":[-4.250995635986328,6.636349678039551,-7.415377616882324,11.590203285217286,-0.684398889541626]},{"weightList":[-3.334840774536133,0.359064519405365,3.5980684757232668,-1.0737918615341187,1.7932071685791016]},{"weightList":[1.0116572380065919,-4.311816215515137,-0.24980057775974275,-0.25398582220077517,0.1367194950580597]},{"weightList":[3.4719481468200685,3.84648060798645,4.4715447425842289,8.22169017791748,1.4985864162445069]},{"weightList":[3.6774330139160158,0.2670799791812897,-3.3378326892852785,-0.2613352835178375,3.9955577850341799]},{"weightList":[-1.58781099319458,0.5962245464324951,-4.507574558258057,-3.1220686435699465,1.0136373043060303]},{"weightList":[-2.085756301879883,2.5040946006774904,-3.919520854949951,7.841657638549805,-0.31939566135406496]},{"weightList":[3.3517355918884279,3.4328510761260988,-2.513882637023926,-2.055983304977417,-1.5270018577575684]},{"weightList":[1.0692238807678223,-0.774138867855072,-0.006955403834581375,0.7585818767547607,3.978292465209961]},{"weightList":[2.1627604961395265,-3.8505587577819826,3.9356772899627687,-4.846969127655029,0.9752051830291748]},{"weightList":[1.299132227897644,-6.929871082305908,-1.5389562845230103,-3.5485470294952394,-0.308928519487381]},{"weightList":[2.320557117462158,-0.5411298274993897,2.1304657459259035,-0.1443118453025818,2.7755632400512697]},{"weightList":[4.078436851501465,5.136382579803467,6.321356296539307,10.130056381225586,0.7667219042778015]},{"weightList":[-4.1700615882873539,1.8398888111114503,-2.1070263385772707,-3.170862913131714,0.3573039472103119]},{"weightList":[1.772547721862793,-2.0562944412231447,-1.9573158025741578,1.802901268005371,0.8352482914924622]},{"weightList":[-4.250995635986328,6.636349678039551,-7.415377616882324,11.590203285217286,-0.684398889541626]},{"weightList":[-3.334840774536133,0.359064519405365,3.5980684757232668,-1.0737918615341187,1.7932071685791016]},{"weightList":[1.0116572380065919,-4.311816215515137,-0.24980057775974275,-0.25398582220077517,0.1367194950580597]},{"weightList":[3.4719481468200685,3.84648060798645,4.4715447425842289,8.22169017791748,1.4985864162445069]},{"weightList":[3.6774330139160158,0.2670799791812897,-3.3378326892852785,-0.2613352835178375,3.9955577850341799]},{"weightList":[-1.58781099319458,0.5962245464324951,-4.507574558258057,-3.1220686435699465,1.0136373043060303]},{"weightList":[-2.085756301879883,2.5040946006774904,-3.919520854949951,7.841657638549805,-0.31939566135406496]},{"weightList":[3.3517355918884279,3.4328510761260988,-2.513882637023926,-2.055983304977417,-1.5270018577575684]},{"weightList":[1.0692238807678223,-0.774138867855072,-0.006955403834581375,0.7585818767547607,3.978292465209961]},{"weightList":[2.1627604961395265,-3.8505587577819826,3.9356772899627687,-4.846969127655029,0.9752051830291748]},{"weightList":[1.299132227897644,-6.929871082305908,-1.5389562845230103,-3.5485470294952394,-0.308928519487381]},{"weightList":[2.320557117462158,-0.5411298274993897,2.1304657459259035,-0.1443118453025818,2.7755632400512697]},{"weightList":[4.078436851501465,5.136382579803467,6.321356296539307,10.130056381225586,0.7667219042778015]},{"weightList":[-4.1700615882873539,1.8398888111114503,-2.1070263385772707,-3.170862913131714,0.3573039472103119]},{"weightList":[1.772547721862793,-2.0562944412231447,-1.9573158025741578,1.802901268005371,0.8352482914924622]},{"weightList":[-4.250995635986328,6.636349678039551,-7.415377616882324,11.590203285217286,-0.684398889541626]},{"weightList":[-3.334840774536133,0.359064519405365,3.5980684757232668,-1.0737918615341187,1.7932071685791016]},{"weightList":[1.0116572380065919,-4.311816215515137,-0.24980057775974275,-0.25398582220077517,0.1367194950580597]},{"weightList":[3.4719481468200685,3.84648060798645,4.4715447425842289,8.22169017791748,1.4985864162445069]},{"weightList":[3.6774330139160158,0.2670799791812897,-3.3378326892852785,-0.2613352835178375,3.9955577850341799]},{"weightList":[-1.58781099319458,0.5962245464324951,-4.507574558258057,-3.1220686435699465,1.0136373043060303]},{"weightList":[-2.085756301879883,2.5040946006774904,-3.919520854949951,7.841657638549805,-0.31939566135406496]},{"weightList":[3.3517355918884279,3.4328510761260988,-2.513882637023926,-2.055983304977417,-1.5270018577575684]},{"weightList":[1.0692238807678223,-0.774138867855072,-0.006955403834581375,0.7585818767547607,3.978292465209961]},{"weightList":[2.1627604961395265,-3.8505587577819826,3.9356772899627687,-4.846969127655029,0.9752051830291748]},{"weightList":[1.299132227897644,-6.929871082305908,-1.5389562845230103,-3.5485470294952394,-0.308928519487381]},{"weightList":[2.320557117462158,-0.5411298274993897,2.1304657459259035,-0.1443118453025818,2.7755632400512697]},{"weightList":[4.078436851501465,5.136382579803467,6.321356296539307,10.130056381225586,0.7667219042778015]},{"weightList":[-4.1700615882873539,1.8398888111114503,-2.1070263385772707,-3.170862913131714,0.3573039472103119]},{"weightList":[1.772547721862793,-2.0562944412231447,-1.9573158025741578,1.802901268005371,0.8352482914924622]},{"weightList":[-4.250995635986328,6.636349678039551,-7.415377616882324,11.590203285217286,-0.684398889541626]},{"weightList":[-3.334840774536133,0.359064519405365,3.5980684757232668,-1.0737918615341187,1.7932071685791016]},{"weightList":[1.0116572380065919,-4.311816215515137,-0.24980057775974275,-0.25398582220077517,0.1367194950580597]},{"weightList":[3.4719481468200685,3.84648060798645,4.4715447425842289,8.22169017791748,1.4985864162445069]},{"weightList":[3.6774330139160158,0.2670799791812897,-3.3378326892852785,-0.2613352835178375,3.9955577850341799]},{"weightList":[-1.58781099319458,0.5962245464324951,-4.507574558258057,-3.1220686435699465,1.0136373043060303]},{"weightList":[-2.085756301879883,2.5040946006774904,-3.919520854949951,7.841657638549805,-0.31939566135406496]},{"weightList":[3.3517355918884279,3.4328510761260988,-2.513882637023926,-2.055983304977417,-1.5270018577575684]},{"weightList":[1.0692238807678223,-0.774138867855072,-0.006955403834581375,0.7585818767547607,3.978292465209961]},{"weightList":[2.1627604961395265,-3.8505587577819826,3.9356772899627687,-4.846969127655029,0.9752051830291748]},{"weightList":[1.299132227897644,-6.929871082305908,-1.5389562845230103,-3.5485470294952394,-0.308928519487381]},{"weightList":[2.320557117462158,-0.5411298274993897,2.1304657459259035,-0.1443118453025818,2.7755632400512697]},{"weightList":[4.078436851501465,5.136382579803467,6.321356296539307,10.130056381225586,0.7667219042778015]},{"weightList":[-4.1700615882873539,1.8398888111114503,-2.1070263385772707,-3.170862913131714,0.3573039472103119]},{"weightList":[1.772547721862793,-2.0562944412231447,-1.9573158025741578,1.802901268005371,0.8352482914924622]},{"weightList":[-4.250995635986328,6.636349678039551,-7.415377616882324,11.590203285217286,-0.684398889541626]},{"weightList":[-3.334840774536133,0.359064519405365,3.5980684757232668,-1.0737918615341187,1.7932071685791016]},{"weightList":[1.0116572380065919,-4.311816215515137,-0.24980057775974275,-0.25398582220077517,0.1367194950580597]},{"weightList":[3.4719481468200685,3.84648060798645,4.4715447425842289,8.22169017791748,1.4985864162445069]},{"weightList":[3.6774330139160158,0.2670799791812897,-3.3378326892852785,-0.2613352835178375,3.9955577850341799]},{"weightList":[-1.58781099319458,0.5962245464324951,-4.507574558258057,-3.1220686435699465,1.0136373043060303]},{"weightList":[-2.085756301879883,2.5040946006774904,-3.919520854949951,7.841657638549805,-0.31939566135406496]},{"weightList":[3.3517355918884279,3.4328510761260988,-2.513882637023926,-2.055983304977417,-1.5270018577575684]},{"weightList":[1.0692238807678223,-0.774138867855072,-0.006955403834581375,0.7585818767547607,3.978292465209961]},{"weightList":[2.1627604961395265,-3.8505587577819826,3.9356772899627687,-4.846969127655029,0.9752051830291748]},{"weightList":[1.299132227897644,-6.929871082305908,-1.5389562845230103,-3.5485470294952394,-0.308928519487381]},{"weightList":[2.320557117462158,-0.5411298274993897,2.1304657459259035,-0.1443118453025818,2.7755632400512697]},{"weightList":[4.078436851501465,5.136382579803467,6.321356296539307,10.130056381225586,0.7667219042778015]},{"weightList":[-4.1700615882873539,1.8398888111114503,-2.1070263385772707,-3.170862913131714,0.3573039472103119]},{"weightList":[1.772547721862793,-2.0562944412231447,-1.9573158025741578,1.802901268005371,0.8352482914924622]},{"weightList":[-4.250995635986328,6.636349678039551,-7.415377616882324,11.590203285217286,-0.684398889541626]}],"hiddenLayerWeights":[{"weightList":[-2.072153329849243,0.1747673898935318,0.6151134371757507,-1.4012389183044434,0.4017861783504486,-0.6399746537208557,-0.81544029712677,1.5551040172576905,2.540625810623169,-2.826850175857544,0.5712077617645264,2.0322811603546144,-0.609437882900238,1.4584150314331055,-2.129408359527588,-0.9860600829124451]},{"weightList":[3.2810091972351076,-1.787721037864685,1.9316147565841675,-1.734887957572937,-1.4732261896133423,3.0820975303649904,2.5341062545776369,1.0302212238311768,-3.243053674697876,-1.351357340812683,-0.275993287563324,1.775081753730774,-3.6059906482696535,-0.9156551361083984,2.581573724746704,-0.7152899503707886]},{"weightList":[-1.4005939960479737,-0.35593438148498537,5.410640716552734,-2.7695133686065676,-2.3248960971832277,-3.9954330921173097,-3.4206111431121828,-1.0044856071472169,1.9749956130981446,-2.203524589538574,-0.22923922538757325,7.521181106567383,-1.3484687805175782,-1.365979790687561,-9.38437557220459,-2.586832046508789]}]}